//Numpy array shape [12, 8]
//Min -0.812500000000
//Max 0.953125000000
//Number of zeros 1

#ifndef W8_H_
#define W8_H_

#ifndef __SYNTHESIS__
weight8_t w8[96];
#else
weight8_t w8[96] = {0.06640625, 0.31640625, -0.62500000, -0.44531250, -0.05468750, 0.21093750, -0.76562500, 0.05468750, -0.37890625, -0.16406250, -0.33593750, -0.26171875, -0.22265625, -0.03125000, 0.03515625, 0.41015625, -0.52734375, -0.36328125, 0.63281250, -0.29687500, 0.00000000, -0.45312500, 0.94921875, 0.46484375, -0.60156250, 0.35156250, 0.30078125, -0.23828125, -0.49609375, 0.09375000, -0.81250000, 0.36718750, 0.33203125, -0.21093750, -0.23437500, 0.32812500, -0.05078125, 0.34375000, -0.17968750, -0.35546875, -0.54296875, -0.45703125, -0.41406250, 0.17187500, -0.37500000, 0.11328125, -0.55078125, 0.51171875, -0.14453125, 0.02343750, -0.39453125, -0.03906250, 0.46875000, -0.05468750, -0.41406250, 0.31640625, -0.37500000, 0.08984375, -0.62109375, -0.43359375, -0.36718750, -0.32031250, -0.80078125, 0.70312500, -0.34765625, 0.39843750, -0.49218750, 0.40625000, -0.35937500, 0.41015625, -0.05468750, 0.16796875, 0.82031250, -0.33984375, 0.24609375, -0.06250000, -0.31640625, -0.49609375, -0.12890625, 0.42578125, -0.15234375, -0.47656250, -0.80468750, 0.05859375, -0.06250000, 0.01953125, -0.49218750, 0.63671875, -0.59765625, -0.41796875, 0.95312500, 0.02343750, 0.33203125, -0.26953125, -0.38281250, 0.16015625};
#endif

#endif
